[[{"weights": [0.24129062856577796, -0.6661374220169528, 0.10663357335632362, -0.6356532462317065, 0.7513295463954547, 0.5646987422238869], "biases": [0.04267270956562931, -0.01375069014414757, 0.0700502155316805, -0.09122440440444451, 0.02021040956011421, 0.056266364336696836]}, {"weights": [0.46503723065754554, 0.5358332402647201, 0.5359725851204059, 0.41005736969155315, -0.1464230912798628, -0.11795920246204003], "biases": [-0.07180434903965621, -0.06393403857621242, 0.09024131868198453, -0.03391433131529026, 0.04842392596482331, 0.11033039977379196]}, {"weights": [1.0030524932392046, 0.25842880756736797, -0.4404387708982551, 0.9622784112537924, 1.0597793129056732, 0.17688681308559442], "biases": [-0.05925077107791571, -0.06686028224415168, -0.021294700745894016, -0.013044697496745144, -0.005634978375049577, -0.04431811929249016]}, {"weights": [-0.5913468241641446, -0.6056145939771294, 0.9021643793270409, -0.645753747490401, -0.08295277310991847, -0.2001340113389936], "biases": [-0.09484201894598977, 0.01566759384168034, 0.09976727483292791, -0.08788255430819625, -0.0404127137200042, -0.07342572238700112]}, {"weights": [-0.017860310207199335, -0.8264002182090269, -0.7580643155155962, 0.08157636566136262, -0.17185457798669646, -1.0304098381038431], "biases": [-0.08124706955629694, -0.097296594801395, 0.024583078911675098, -0.02974427007248088, -0.07564492636228026, 0.09604821986310697]}, {"weights": [0.39292030865880134, -0.23165989139353899, -0.5626260497658886, -0.8017736881629627, 0.22093571756885413, -0.07639748172941385], "biases": [-0.06799347402831869, 0.05068285089516651, -0.02075049397174481, 0.09568283416456017, 0.014568867148767964, -0.01510536588188057]}, {"weights": [0.5406649718096195, 0.7534152764853236, -0.2731047505495866, 0.07292456317390361, 0.6327101502305769, -0.15717809838343264], "biases": [-0.00818722061484267, 0.06809282288030936, 0.046123664121338365, -0.0305411454953118, 0.08766818441098316, 0.025156577144714806]}, {"weights": [0.723157954215929, 0.48235136726328676, 0.7069531663353696, -0.19326663890600826, -0.8436299978606225, -0.8727548284508196], "biases": [-0.0004308878460619238, -0.018857999422709156, 0.0396737478303575, 0.03299065636650224, 0.10504605851078384, 0.030052626551169553]}], [{"weights": [-0.5315818970210174, 0.511041352637138, 0.029508020170615424, -0.034453766704957166, -0.655510162265437, -0.16067387114782594, 0.4375337611115538, 0.3893079609261454], "biases": [-0.014382584497435623, -0.0638678120651687, 0.07825711649945033, -0.05073065549526043, -0.0007773083168242408, -0.004713216481739619, -0.05724776851576688, 0.055101796977258616]}, {"weights": [-0.5282600606540542, 0.11418034866628554, 0.35305309519318084, 0.1079014061584999, -0.14668397414204967, 0.7944448705726982, 1.086758294156941, 0.9005487634598002], "biases": [0.07808973038985395, -0.005304128094808792, 0.014527996651666002, -0.11060248294022765, 0.05177333486168507, -0.0757061457868092, 0.007283461948095785, -0.0964672007369945]}, {"weights": [-0.28505278561362857, 0.14714178336200143, 0.2675062127022162, -0.18802637292116867, 0.040567906265144046, 0.6032130012725885, 0.6760753669613752, 0.24460476527188876], "biases": [0.009919209790669412, 0.051807018911755716, -0.016448428173681945, -0.06668388657723037, 0.006121116444209895, 0.002577679809843828, -0.07147109271498245, -0.010562432411138316]}, {"weights": [0.11860908163818605, -0.024790854663717693, -0.9033425388087244, 1.4210384928224638, -0.14663627466659615, 0.985526156637603, 0.34698147956513903, -0.49875022184846934], "biases": [0.02373511215774031, 0.059035631314162944, 0.007720030296258323, 0.009592573676716135, 0.07584608843751489, -0.060114502889507516, 0.07353961718607088, -0.09153424131889042]}, {"weights": [0.6229207944525544, 1.1477817604559337, -0.5887496080616672, -0.3531309349136468, -0.05386362460857423, -0.2496261400703103, 0.2016532715119252, 0.18805281022173626], "biases": [0.0030644086824018666, 0.0032836923183481464, -0.06133074889761275, 0.03754931556002306, 0.011982474516198624, 0.04203815509116064, -0.11821220718480141, -0.00581696179135111]}, {"weights": [-0.09018833693506276, -0.5224827672224543, -0.16664229862387284, 0.036816547269592305, -0.45502971224570604, 0.9432984896176215, -0.1184814327144382, -0.638477307189505], "biases": [-0.0733055675339406, -0.09225466455512475, 0.07269123578823108, -0.015503784220632519, -0.04869150599930345, -0.03842696586984175, -0.07947667810362057, -0.07484565802378874]}, {"weights": [1.2327502745634307, 0.3986740365767352, 0.4120377060097331, -0.38039920264215926, 0.7815250440882638, 0.3383118380535353, -0.565247955155582, -0.6431033663530122], "biases": [0.0181696951336024, 0.023013084118321765, 0.008833478736247085, 0.04778824984985346, -0.037415357167977774, -0.0887327509073029, -0.06414330657955616, -0.10825842118252535]}, {"weights": [-0.7739280553190784, -0.32137784420391785, -0.47280466465008963, -0.1331411624697611, 1.0871448771017778, -0.6614748297537187, -0.9071252628328831, 0.2851756426552694], "biases": [-0.03355519063345876, -0.0712696590335132, -0.06886810686937453, -0.015024444226483746, 0.067376310397606, -0.05610757002253356, -0.06666441319107724, -0.03530742712507091]}], [{"weights": [0.4406034590996168, -0.6221411600414296, 0.1133916151112229, -0.12922925005456917, 0.36416323785069016, 0.648951839438372, -0.7698178760138726, 0.5783668030294893], "biases": [0.12220374910286459, 0.11267909574806094, 0.13253473636987656, 0.19844540527509147, 0.030900384685450547, 0.04823454747532475, 0.10500270122073892, 0.13917716723766332]}, {"weights": [0.07460937239606304, -0.29597734106140317, 0.19924043792151672, 0.8854795669897262, -0.20951068401680667, 0.39754630052098994, 0.9973011529311347, 0.4788314635094281], "biases": [0.08560419345689538, 0.21536686950881279, 0.22078572262658125, 0.23623833106172404, 0.10370039885412535, 0.15632154472215454, 0.16835132508294814, 0.19512569001182672]}]]