[[{"weights": [-0.22635380044597428, -0.20888665920972221, 0.6414786845791208, -0.46195328130834884, 1.2018199956303042, -0.6219101098404445], "biases": [-0.12511905131803785, -0.19506018206275902, -0.1805943905189644, -0.07402736913962417, -0.21560938107102975, -0.10226651584039757]}, {"weights": [-0.47625169481220037, -0.3076943190437831, 0.12607540229267059, 0.85840587951188, 0.6731421816766255, -1.2494158561448439], "biases": [-0.06304194757229262, 0.01074651815567993, -0.08960886982189785, 0.049902995096618635, -0.11328156776431834, -0.0035568700807515536]}, {"weights": [0.429814667740764, 0.37726151883821996, -0.3484137337979252, 0.13331484221675713, -0.16006271571543482, 0.014387215971420843], "biases": [-0.03391078995691649, 0.0184682191891278, 0.07295131534966089, -0.016615892175365948, 0.14973175766555394, 0.018385662757338623]}, {"weights": [-1.290079954354983, 0.10212826113808146, -0.514856374304926, 0.2061083201051973, 0.206910096334456, 0.020817883262141564], "biases": [0.20500399895555543, 0.23141254323017557, 0.2030236824846599, 0.20284435628466924, 0.32718523610404593, 0.2747779670680329]}, {"weights": [0.10469823930848915, -0.18267097227913076, -0.4642807785661831, -0.38238832754273583, 0.49594047575164524, -0.08702764293145282], "biases": [0.2337360062048153, 0.07943836522038505, 0.08788021837640791, 0.1491230647927845, 0.2073578316343714, 0.1522352098608684]}, {"weights": [-0.2999450550828225, 0.19558962658714937, -0.16555492721206455, -0.3961071251755185, -0.4245855943208604, -0.20706471005339105], "biases": [0.06370886884491903, -0.0892622566500387, 0.07898735466461737, 0.02999759736145579, 0.040349930334190556, 0.0019683658412689227]}, {"weights": [-0.11686972887992116, 0.7067953918574232, 0.5389382638151581, -0.38557387628225726, 1.2436582631159923, 0.2211707872922402], "biases": [-0.4090439253783287, -0.4292548771241065, -0.3156690779479341, -0.3769918554175514, -0.3721544765558612, -0.36852866966186626]}, {"weights": [0.8075389119919375, -0.8969802700944246, 0.8881810623129452, 0.13023169860339479, 0.6091756945995914, -0.1440034503910699], "biases": [-0.14737016456879112, -0.20297424989142795, -0.1103529163257241, -0.2341671842558729, -0.1997425161799239, -0.10194096278973912]}], [{"weights": [0.45374314073620375, -0.2087493062094455, -0.2208635139954943, -1.2599479871474024, -0.113416178987526, 0.21590269200200563, -0.44562560052379835, 0.755784042294206], "biases": [-0.15607729300295659, -0.06273667103429308, -0.06703343103712982, 0.012050805186734747, 0.0165056303879524, -0.002961587880772713, 0.01116747458956895, -0.03249917929926723]}, {"weights": [-0.888688416288478, -0.2885804824427497, 0.3410458913264416, 0.16710786119408802, 0.28866563440501886, 0.7816873646511715, -0.6386610567183538, -1.10527633771321], "biases": [-0.07003014543423987, -0.08308958114350266, 0.022558952938287493, -0.07271066394267615, -0.11482712825823761, 0.029830418898479625, -0.04205883415532682, -0.06247224329031233]}, {"weights": [0.41764681058663705, 0.8057134839283976, 0.3919409012535769, -0.4858858241646242, 0.06177754016900114, -0.38960797094720456, 0.3785117973377418, -0.711184249321544], "biases": [-0.04352636424116798, -0.06940851391549904, -0.1457630646534677, -0.04825000521236714, -0.07539502273208284, -0.14185367918217703, 0.03959542311821571, 0.03897911981734587]}, {"weights": [0.2189256782010974, -0.2600549108144275, 0.33208428973547793, 1.0780594968874542, 1.300383068146695, -0.2541313600560943, -0.2481436318266382, -0.19473230660620067], "biases": [0.04424655961613649, -0.12780007508267074, -0.06151031097081845, -0.007493016683641256, -0.06122266640410141, 0.013817258563932778, -0.07925256728475337, -0.023227004893327467]}, {"weights": [-0.26312142564762453, -0.2123610664214195, -0.4539299286099003, -0.17801609276304975, 0.24642000695809496, 0.30102591733449946, 0.3288457417211279, -0.6929013702782674], "biases": [-0.12608819623337134, 0.0012010456325045483, 0.01932736964374937, 0.020825074707350698, -0.09765728821821637, -0.05707076091413809, 0.020183779736927754, -0.1297436361155961]}, {"weights": [0.08059913850009713, -0.35784847468318964, -0.07743103547776659, -0.5973780394981675, 0.1165490594126031, 1.131244433928584, 0.9521047265962811, 0.5335288964644571], "biases": [-0.03806864895054158, -0.1664494947830256, -0.013333820382836502, -0.14670827541486, -0.13511899860216411, -0.02905202390225179, -0.1735326041467488, -0.13716908715225248]}, {"weights": [-1.086526943057154, -0.2773304912943679, 0.8374331581466792, -0.17219327959190175, 0.11895165191042169, -0.07649093538084806, -0.9029993895959818, -0.2103236383167363], "biases": [-0.04268358197149991, -0.0004785949029466269, 0.0026267682100492894, 0.10473116133462006, 0.14122193282139325, 0.06264013960136999, -0.006753893407992288, -0.036806368078768935]}, {"weights": [0.4775260539821082, -0.2569088478050773, -0.10010145698894213, -0.11899632420259951, -0.28754847126663013, 0.5344550431720314, -0.18653056985973368, -0.3269354357733004], "biases": [-0.09616781343865127, 0.06559403776878167, -0.03088727999119118, -0.031442529411642, -0.0028439186795408988, 0.07287067358589866, -0.04872056816018821, 0.05322567610537778]}], [{"weights": [0.7006210083451536, 1.0713842488980596, -0.3263731555916822, 0.26908662134038347, -0.2840529827884369, -0.00573608737713058, 0.558944627189117, -0.5190868103427434], "biases": [-0.0018667032951911033, -0.07074569151717672, -0.022424343185141932, -0.011679141676639318, -0.08791966539193069, -0.06512009001156466, -0.06475110452983071, -0.009696990029129545]}, {"weights": [0.6557938817380448, -0.09139654592538721, -0.4564577424100891, 0.0036365673486235483, 0.11213797797949106, 0.04360026658194712, 0.03186397471992563, -0.4835764404393072], "biases": [0.02503840369421401, 0.008804153480096284, 0.14062778206074197, 0.0017491230949309737, -0.020610110531043235, 0.14795198019853364, 0.04683732807183861, 0.09676878562812057]}]]