[[{"weights": [0.018260066460954506, 0.48721400968605966, 0.7262580421608462, 0.20622824398383563, 0.6472993656035303, 0.10279222996394022], "biases": [0.036305158838372195, -0.009912560580194862, 0.07897009257407435, -0.07732942276193842, -0.03790071796396714, 0.004610379966332398]}, {"weights": [-0.5322579880354448, -0.3664306063162972, -0.6605148628495205, -0.04381022020113545, -0.3728937576675476, 0.09194929705909001], "biases": [0.09167083996931398, 0.06536137576079444, -0.020388945154691314, -0.0013250048846254279, -0.012301707389908698, 0.002305676001726985]}, {"weights": [0.20235549168234324, 0.4712711760541542, -0.5401031033884821, 0.6813529308206061, 0.7907757906809042, -0.6134855919418487], "biases": [0.1058803374465971, 0.08741325498964418, 0.1136916693591362, 0.11990032424041265, 0.07836714290592849, 0.1607899020244683]}, {"weights": [-0.15419951906175583, 0.6987150359598036, 0.1633481082627269, 0.733183146928913, 1.2760712086674404, 0.375839346280049], "biases": [-0.06444564544093175, 0.09539301328809689, 0.05340111153247376, -0.07065180231166802, 0.006435980457633943, 0.04940189345251139]}, {"weights": [0.3220590810214895, 0.4272469293098099, 0.10034194205271675, 0.08133609063978371, 0.38299634189393306, 0.15126832682859598], "biases": [-0.05660329269006213, 0.019092255531222586, 0.013434125181414618, 0.02014107643827515, -0.02145322009644578, 0.08711281575991135]}, {"weights": [0.39603543849477785, -0.1602876396200399, 0.4630279725085253, -0.04679926011475641, 0.40783926684667593, 0.24781863208855975], "biases": [0.0632603326519043, 0.026610796287745094, -0.009223747317998961, -0.023459190165478403, 0.07836325740018106, -0.005324986409342653]}, {"weights": [0.10968656715012945, -0.04579474898256744, 0.27233828482329075, 1.2717406411258276, 0.1030824524285448, 0.7571146348344526], "biases": [0.0569114167358923, -0.06853679186923863, 0.0883903432365069, 0.10743859797051906, 0.034746485036679556, 0.040077017699785736]}, {"weights": [-0.46044569648303857, 0.1393988098198845, -0.5520209846779323, 0.6667154199308456, -0.0014765150215285841, -0.5361095281127385], "biases": [-0.05174075580900048, -0.05243597967090542, -0.0018807607380858641, -0.04454372931423055, 0.03844066852128482, -0.08600884105364273]}], [{"weights": [-0.46884494891220996, -0.7483982721462714, 0.8080764798821958, -1.0058372439571592, 0.7758884340624689, 0.1689236920303796, 0.4126740482590558, -0.40773428432867165], "biases": [-0.0918090112565036, -0.18296343232467288, -0.15799738640289157, -0.12133411484599249, -0.14573719458901893, -0.03495280517448324, -0.08111780592522219, -0.11979924707693487]}, {"weights": [1.2529138285842212, 0.020649368299361072, -0.37617877167902236, -0.3950781717962208, -0.3222999969162111, 0.11692376415221667, 0.30114600612168574, 0.20378013057414182], "biases": [0.012439652521809655, -0.07545434248252021, 0.023100534750969487, -0.06111017265417688, 0.0027413094452760248, -0.07883390593503346, -0.03166095858758284, 0.026930228192102633]}, {"weights": [0.5741662236979959, 0.021785020286323384, -0.4125670261735882, 0.17153229420034252, 0.17480169837177456, -0.11337814678247056, -0.16277191556771498, 0.7578680282413456], "biases": [-0.0491275631771461, -0.17251644530060506, -0.09867905700722765, -0.12889079804269268, -0.09010252653501169, -0.09443328150833169, -0.19801189147628262, -0.053535783594265626]}, {"weights": [1.6715687624336564, -1.009240771460524, -0.28583938836403744, -0.5443810629029873, 0.22134139933922992, 0.8035515404434685, -0.6886259951825832, 1.085418918315923], "biases": [0.08369918966502646, 0.1948762918713103, 0.11000022811335158, 0.06429308134179068, 0.19014451507239102, 0.15523286973611042, 0.043814547935906036, 0.13979077150945243]}], [{"weights": [-0.5688175763063976, -0.8030484648478774, -0.13572025936743345, -0.054215985775723625], "biases": [0.295049942466634, 0.2072669613073452, 0.298530914712586, 0.19586308980939235]}, {"weights": [-0.24356445127722628, 0.0008962355213452556, 0.01416292933831562, 0.0030700793414141334], "biases": [0.11386716513737875, 0.18333138964128928, 0.04896011196805858, 0.10875752320679556]}]]